digraph Tree {
node [shape=box] ;
0 [label="X[2] <= 0.5\nentropy = 0.8672\nsamples = 232\nvalue = [165, 67]"] ;
1 [label="X[0] <= 4.5\nentropy = 0.2762\nsamples = 84\nvalue = [80, 4]"] ;
0 -> 1 [labeldistance=2.5, labelangle=45, headlabel="True"] ;
2 [label="X[0] <= 2.5\nentropy = 0.1147\nsamples = 65\nvalue = [64, 1]"] ;
1 -> 2 ;
3 [label="X[1] <= 0.5\nentropy = 0.3228\nsamples = 17\nvalue = [16, 1]"] ;
2 -> 3 ;
4 [label="entropy = 0.0\nsamples = 7\nvalue = [7, 0]"] ;
3 -> 4 ;
5 [label="X[0] <= 1.5\nentropy = 0.469\nsamples = 10\nvalue = [9, 1]"] ;
3 -> 5 ;
6 [label="entropy = 0.0\nsamples = 5\nvalue = [5, 0]"] ;
5 -> 6 ;
7 [label="entropy = 0.7219\nsamples = 5\nvalue = [4, 1]"] ;
5 -> 7 ;
8 [label="entropy = 0.0\nsamples = 48\nvalue = [48, 0]"] ;
2 -> 8 ;
9 [label="X[0] <= 6.5\nentropy = 0.6292\nsamples = 19\nvalue = [16, 3]"] ;
1 -> 9 ;
10 [label="X[1] <= 0.5\nentropy = 0.9544\nsamples = 8\nvalue = [5, 3]"] ;
9 -> 10 ;
11 [label="X[0] <= 5.5\nentropy = 0.9183\nsamples = 6\nvalue = [4, 2]"] ;
10 -> 11 ;
12 [label="entropy = 0.0\nsamples = 1\nvalue = [1, 0]"] ;
11 -> 12 ;
13 [label="entropy = 0.971\nsamples = 5\nvalue = [3, 2]"] ;
11 -> 13 ;
14 [label="entropy = 1.0\nsamples = 2\nvalue = [1, 1]"] ;
10 -> 14 ;
15 [label="entropy = 0.0\nsamples = 11\nvalue = [11, 0]"] ;
9 -> 15 ;
16 [label="X[1] <= 0.5\nentropy = 0.984\nsamples = 148\nvalue = [85, 63]"] ;
0 -> 16 [labeldistance=2.5, labelangle=-45, headlabel="False"] ;
17 [label="X[0] <= 3.5\nentropy = 0.7052\nsamples = 73\nvalue = [59, 14]"] ;
16 -> 17 ;
18 [label="entropy = 0.0\nsamples = 45\nvalue = [45, 0]"] ;
17 -> 18 ;
19 [label="X[2] <= 1.5\nentropy = 1.0\nsamples = 28\nvalue = [14, 14]"] ;
17 -> 19 ;
20 [label="entropy = 0.0\nsamples = 9\nvalue = [9, 0]"] ;
19 -> 20 ;
21 [label="X[2] <= 2.5\nentropy = 0.8315\nsamples = 19\nvalue = [5, 14]"] ;
19 -> 21 ;
22 [label="X[0] <= 4.5\nentropy = 0.994\nsamples = 11\nvalue = [5, 6]"] ;
21 -> 22 ;
23 [label="entropy = 0.9911\nsamples = 9\nvalue = [5, 4]"] ;
22 -> 23 ;
24 [label="entropy = 0.0\nsamples = 2\nvalue = [0, 2]"] ;
22 -> 24 ;
25 [label="entropy = 0.0\nsamples = 8\nvalue = [0, 8]"] ;
21 -> 25 ;
26 [label="X[0] <= 5.5\nentropy = 0.9311\nsamples = 75\nvalue = [26, 49]"] ;
16 -> 26 ;
27 [label="X[2] <= 3.5\nentropy = 0.9842\nsamples = 61\nvalue = [26, 35]"] ;
26 -> 27 ;
28 [label="X[0] <= 1.5\nentropy = 0.9997\nsamples = 51\nvalue = [26, 25]"] ;
27 -> 28 ;
29 [label="entropy = 0.0\nsamples = 8\nvalue = [8, 0]"] ;
28 -> 29 ;
30 [label="X[0] <= 3.5\nentropy = 0.9808\nsamples = 43\nvalue = [18, 25]"] ;
28 -> 30 ;
31 [label="X[2] <= 1.5\nentropy = 0.9877\nsamples = 23\nvalue = [13, 10]"] ;
30 -> 31 ;
32 [label="X[0] <= 2.5\nentropy = 0.9183\nsamples = 12\nvalue = [4, 8]"] ;
31 -> 32 ;
33 [label="entropy = 0.8454\nsamples = 11\nvalue = [3, 8]"] ;
32 -> 33 ;
34 [label="entropy = 0.0\nsamples = 1\nvalue = [1, 0]"] ;
32 -> 34 ;
35 [label="X[2] <= 2.5\nentropy = 0.684\nsamples = 11\nvalue = [9, 2]"] ;
31 -> 35 ;
36 [label="entropy = 0.0\nsamples = 9\nvalue = [9, 0]"] ;
35 -> 36 ;
37 [label="entropy = 0.0\nsamples = 2\nvalue = [0, 2]"] ;
35 -> 37 ;
38 [label="X[0] <= 4.5\nentropy = 0.8113\nsamples = 20\nvalue = [5, 15]"] ;
30 -> 38 ;
39 [label="X[2] <= 1.5\nentropy = 0.469\nsamples = 10\nvalue = [1, 9]"] ;
38 -> 39 ;
40 [label="entropy = 0.65\nsamples = 6\nvalue = [1, 5]"] ;
39 -> 40 ;
41 [label="entropy = 0.0\nsamples = 4\nvalue = [0, 4]"] ;
39 -> 41 ;
42 [label="X[2] <= 1.5\nentropy = 0.971\nsamples = 10\nvalue = [4, 6]"] ;
38 -> 42 ;
43 [label="entropy = 0.9544\nsamples = 8\nvalue = [3, 5]"] ;
42 -> 43 ;
44 [label="entropy = 1.0\nsamples = 2\nvalue = [1, 1]"] ;
42 -> 44 ;
45 [label="entropy = 0.0\nsamples = 10\nvalue = [0, 10]"] ;
27 -> 45 ;
46 [label="entropy = 0.0\nsamples = 14\nvalue = [0, 14]"] ;
26 -> 46 ;
}